4.232819493713908976e+00
-3.554651478320634439e+00
3.073802781127987771e+00
2.558366799116132295e+00
-3.611091583349318235e+00
-1.036330688182805604e+00
9.570757177251313363e-01
-2.692203786589996706e-01
2.296898136275323132e+00
6.790718731433283750e+00
4.353255012066542529e-01
1.567826599200418558e+00
4.264595738403175851e+00
-7.543288551942142206e-01
-1.778418424183155211e-01
3.866202013269774973e+00
-4.474107476861377108e+00
3.222567733979126103e+00
-1.008316986093248158e+00
1.485205006400485583e+00
-2.066543320383432469e+00
3.828279357309638975e+00
-2.923696153092217642e+00
4.583903435822334949e+00
-1.436938847040336142e+00
7.497344285586053481e+00
-3.578112212704462447e+00
7.035407411180111259e-01
2.028153427954557664e+00
7.513682726720994687e+00
-8.113353031707346563e-01
3.806580393789170902e+00
-4.083995398313619241e+00
3.363339150455031401e-01
-1.593447552888319851e+00
2.923361007622498065e+00
3.460621740546430569e+00
3.692386563914617614e+00
-1.626400192409827028e+00
-1.673429767561943393e+00
9.444189397905168315e-01
-2.705842900240688742e+00
2.665784936794407756e+00
-3.687724090725749804e+00
8.778409662801081037e-01
-1.394703390871539384e+00
-8.124380344474659843e-01
6.037391627449375520e+00
3.596534465263310221e+00
-1.081533127207306677e+01
3.157659054402743415e+00
3.258185811875788485e+00
3.123254452199322628e+00
-5.366690180371296748e+00
2.654168796301380695e+00
-4.055187066747109270e+00
-3.337442669280517915e+00
2.063790972423358294e-01
-9.723758520281639006e-01
9.253220871035084727e+00
-9.122392922237322344e-01
4.611034186376336552e-01
2.689271696119694965e+00
6.858528442877162234e+00
-7.022441735980696542e+00
9.136366383314847850e-01
8.031164037489446628e+00
7.347480751205420768e-04
-1.193059466250645517e+00
1.723178756575722392e+00
6.889217178747062853e+00
-2.872389351018303838e+00
-3.219498470150431224e+00
-7.458602838117760037e+00
2.459611130284454106e+00
-1.115494783143020419e+00
5.868376361270930985e+00
