1.125070738421802274e-01
-6.887313275938330648e+00
5.651375574148063130e-01
-2.621387253620385938e+00
-5.305806517810711220e+00
2.648723596459564344e+00
-1.528904137853923650e-01
-4.256179046594709803e+00
-4.840354182230642843e-01
8.420080179238583540e+00
-4.287449375697766740e+00
-7.289212883387685693e-02
1.788250490149206229e+00
-4.502489606126268917e+00
-2.563294212078774503e+00
-6.737557141450807308e-01
-9.535701541537752846e+00
-6.617153573825823587e-01
-3.273579167373891430e+00
8.135312751239110796e+00
-4.697278449523924593e+00
2.783741686377718239e+00
-8.607130264205848036e+00
1.783695991710823270e+00
5.669780960125236913e-01
9.046142430008748292e+00
1.096292004839705347e+00
-2.661823925472756702e+00
-2.531700882753671333e+00
1.143915302316852678e+00
-2.468964216767029374e+00
7.632535769920715474e+00
-1.820303060735288136e+00
1.061125359544688607e+01
-7.366755819021457707e-01
9.404465665624199389e+00
3.183459271916707634e-01
-2.309555278044324922e+00
-2.688297333497547958e-01
6.811690746242924810e+00
4.388077345144266062e+00
-3.835558173876038701e+00
-1.342964068203815531e+00
-4.147720292873810166e+00
-4.534111679737939937e+00
5.831567472161175658e+00
2.117642594138935408e+00
1.083817108519694372e+00
-7.027211449202625637e+00
-4.394072695590519828e+00
4.418358874477489984e+00
-6.898900929941301996e+00
-1.266214491279793464e-02
2.600378151657303238e-01
-4.452846152035371929e+00
-5.090396089309047412e+00
-5.529447989149895548e+00
3.185200499564392329e-01
2.201229091490869205e+00
-1.687512284246803773e+00
6.081120698908313305e-01
8.495272057542171851e+00
2.318796946247955182e-01
3.976165801630446861e+00
2.114529691245538245e+00
-4.841274742343012250e+00
-1.152468825348542003e+00
-2.317778607568286464e+00
1.135103630458723201e+00
4.068146513687001531e-01
5.327416580650986333e+00
4.819823963422096291e-01
3.378322971207873060e+00
-3.048486618244722113e+00
-4.644521243308317171e-01
-3.161737670541265199e+00
8.394795980730865637e+00
